<?xml version="1.0"?>
<!-- DTD for the XMLBIF 0.3 format -->
<!DOCTYPE BIF [
	<!ELEMENT BIF ( NETWORK )*>
	      <!ATTLIST BIF VERSION CDATA #REQUIRED>
	<!ELEMENT NETWORK ( NAME, ( PROPERTY | VARIABLE | DEFINITION )* )>
	<!ELEMENT NAME (#PCDATA)>
	<!ELEMENT VARIABLE ( NAME, ( OUTCOME |  PROPERTY )* ) >
	      <!ATTLIST VARIABLE TYPE (nature|decision|utility) "nature">
	<!ELEMENT OUTCOME (#PCDATA)>
	<!ELEMENT DEFINITION ( FOR | GIVEN | TABLE | PROPERTY )* >
	<!ELEMENT FOR (#PCDATA)>
	<!ELEMENT GIVEN (#PCDATA)>
	<!ELEMENT TABLE (#PCDATA)>
	<!ELEMENT PROPERTY (#PCDATA)>
]>


<BIF VERSION="0.3">
<NETWORK>
<NAME>CarStarts</NAME>
<VARIABLE TYPE="nature">
	<NAME>Alternator</NAME>
	<OUTCOME>Ok</OUTCOME>
	<OUTCOME>Faulted</OUTCOME>
	<PROPERTY>position = (0,0)</PROPERTY>
</VARIABLE>
<VARIABLE TYPE="nature">
	<NAME>FanBelt</NAME>
	<OUTCOME>Ok</OUTCOME>
	<OUTCOME>Slipping</OUTCOME>
	<OUTCOME>Broken</OUTCOME>
	<PROPERTY>position = (98,0)</PROPERTY>
</VARIABLE>
<VARIABLE TYPE="nature">
	<NAME>Leak</NAME>
	<OUTCOME>Leak</OUTCOME>
	<OUTCOME>NoLeak</OUTCOME>
	<PROPERTY>position = (196,0)</PROPERTY>
</VARIABLE>
<VARIABLE TYPE="nature">
	<NAME>Charge</NAME>
	<OUTCOME>Good</OUTCOME>
	<OUTCOME>Low</OUTCOME>
	<PROPERTY>position = (392,0)</PROPERTY>
</VARIABLE>
<VARIABLE TYPE="nature">
	<NAME>BatteryAge</NAME>
	<OUTCOME>New</OUTCOME>
	<OUTCOME>Old</OUTCOME>
	<PROPERTY>position = (588,96)</PROPERTY>
</VARIABLE>
<VARIABLE TYPE="nature">
	<NAME>BatteryState</NAME>
	<OUTCOME>Ok</OUTCOME>
	<OUTCOME>Weak</OUTCOME>
	<PROPERTY>position = (294,0)</PROPERTY>
</VARIABLE>
<VARIABLE TYPE="nature">
	<NAME>BatteryPower</NAME>
	<OUTCOME>Good</OUTCOME>
	<OUTCOME>Poor</OUTCOME>
	<PROPERTY>position = (784,96)</PROPERTY>
</VARIABLE>
<VARIABLE TYPE="nature">
	<NAME>GasInTank</NAME>
	<OUTCOME>Gas</OUTCOME>
	<OUTCOME>NoGas</OUTCOME>
	<PROPERTY>position = (686,192)</PROPERTY>
</VARIABLE>
<VARIABLE TYPE="nature">
	<NAME>GasGauge</NAME>
	<OUTCOME>Gas</OUTCOME>
	<OUTCOME>NoGas</OUTCOME>
	<PROPERTY>position = (686,96)</PROPERTY>
</VARIABLE>
<VARIABLE TYPE="nature">
	<NAME>Lights</NAME>
	<OUTCOME>Work</OUTCOME>
	<OUTCOME>NoLight</OUTCOME>
	<PROPERTY>position = (784,192)</PROPERTY>
</VARIABLE>
<VARIABLE TYPE="nature">
	<NAME>Radio</NAME>
	<OUTCOME>Works</OUTCOME>
	<OUTCOME>Dead</OUTCOME>
	<PROPERTY>position = (882,192)</PROPERTY>
</VARIABLE>
<VARIABLE TYPE="nature">
	<NAME>Starter</NAME>
	<OUTCOME>Ok</OUTCOME>
	<OUTCOME>Faulted</OUTCOME>
	<PROPERTY>position = (980,96)</PROPERTY>
</VARIABLE>
<VARIABLE TYPE="nature">
	<NAME>Leak2</NAME>
	<OUTCOME>True</OUTCOME>
	<OUTCOME>False</OUTCOME>
	<PROPERTY>position = (490,0)</PROPERTY>
</VARIABLE>
<VARIABLE TYPE="nature">
	<NAME>EngineCranks</NAME>
	<OUTCOME>Cranks</OUTCOME>
	<OUTCOME>NoCrank</OUTCOME>
	<PROPERTY>position = (980,192)</PROPERTY>
</VARIABLE>
<VARIABLE TYPE="nature">
	<NAME>FuelPump</NAME>
	<OUTCOME>Ok</OUTCOME>
	<OUTCOME>Faulted</OUTCOME>
	<PROPERTY>position = (588,0)</PROPERTY>
</VARIABLE>
<VARIABLE TYPE="nature">
	<NAME>Distributor</NAME>
	<OUTCOME>Ok</OUTCOME>
	<OUTCOME>Faulted</OUTCOME>
	<PROPERTY>position = (686,0)</PROPERTY>
</VARIABLE>
<VARIABLE TYPE="nature">
	<NAME>SparkPlugs</NAME>
	<OUTCOME>Ok</OUTCOME>
	<OUTCOME>Bad</OUTCOME>
	<PROPERTY>position = (784,0)</PROPERTY>
</VARIABLE>
<VARIABLE TYPE="nature">
	<NAME>Starts</NAME>
	<OUTCOME>Yes</OUTCOME>
	<OUTCOME>No</OUTCOME>
	<PROPERTY>position = (980,288)</PROPERTY>
</VARIABLE>
<DEFINITION>
<FOR>Alternator</FOR>
<TABLE>
0.9999666688887408 3.333111125924938E-5 
</TABLE>
</DEFINITION>
<DEFINITION>
<FOR>FanBelt</FOR>
<TABLE>
0.9954004599540046 0.0028997100289971 0.0016998300169983002 
</TABLE>
</DEFINITION>
<DEFINITION>
<FOR>Leak</FOR>
<TABLE>
8.999400039997334E-4 0.9991000599960003 
</TABLE>
</DEFINITION>
<DEFINITION>
<FOR>Charge</FOR>
<TABLE>
0.9945670288647424 0.00543297113525765 
</TABLE>
</DEFINITION>
<DEFINITION>
<FOR>BatteryAge</FOR>
	<GIVEN>BatteryState</GIVEN>
<TABLE>
0.7454838709677419 0.25451612903225806 
0.11454372623574144 0.8854562737642585 
</TABLE>
</DEFINITION>
<DEFINITION>
<FOR>BatteryState</FOR>
<TABLE>
0.9299046730217986 0.07009532697820145 
</TABLE>
</DEFINITION>
<DEFINITION>
<FOR>BatteryPower</FOR>
	<GIVEN>BatteryState</GIVEN>
	<GIVEN>Charge</GIVEN>
<TABLE>
0.9999639691575989 3.603084240109534E-5 
0.006756756756756757 0.9932432432432432 
4.789272030651341E-4 0.9995210727969349 
0.05555555555555555 0.9444444444444444 
</TABLE>
</DEFINITION>
<DEFINITION>
<FOR>GasInTank</FOR>
	<GIVEN>GasGauge</GIVEN>
	<GIVEN>BatteryPower</GIVEN>
<TABLE>
0.9996452894438138 3.547105561861521E-4 
0.9861111111111112 0.013888888888888888 
7.320644216691069E-5 0.9999267935578331 
0.4346758349705305 0.5653241650294696 
</TABLE>
</DEFINITION>
<DEFINITION>
<FOR>GasGauge</FOR>
<TABLE>
0.47693487100859944 0.5230651289914006 
</TABLE>
</DEFINITION>
<DEFINITION>
<FOR>Lights</FOR>
	<GIVEN>BatteryPower</GIVEN>
<TABLE>
0.9001585357065648 0.09984146429343518 
0.0022222222222222222 0.9977777777777778 
</TABLE>
</DEFINITION>
<DEFINITION>
<FOR>Radio</FOR>
	<GIVEN>BatteryPower</GIVEN>
<TABLE>
0.8979966851624991 0.1020033148375009 
0.1 0.9 
</TABLE>
</DEFINITION>
<DEFINITION>
<FOR>Starter</FOR>
<TABLE>
0.9904339710685954 0.009566028931404572 
</TABLE>
</DEFINITION>
<DEFINITION>
<FOR>Leak2</FOR>
<TABLE>
7.666155589627358E-4 0.9992333844410373 
</TABLE>
</DEFINITION>
<DEFINITION>
<FOR>EngineCranks</FOR>
	<GIVEN>BatteryPower</GIVEN>
	<GIVEN>Starter</GIVEN>
<TABLE>
0.9991634538444751 8.365461555248418E-4 
0.003816793893129771 0.9961832061068703 
0.20368705035971224 0.7963129496402878 
0.03571428571428571 0.9642857142857143 
</TABLE>
</DEFINITION>
<DEFINITION>
<FOR>FuelPump</FOR>
<TABLE>
0.9987000866608893 0.001299913339110726 
</TABLE>
</DEFINITION>
<DEFINITION>
<FOR>Distributor</FOR>
<TABLE>
0.9989000733284448 0.0010999266715552296 
</TABLE>
</DEFINITION>
<DEFINITION>
<FOR>SparkPlugs</FOR>
<TABLE>
0.9999666688887408 3.333111125924938E-5 
</TABLE>
</DEFINITION>
<DEFINITION>
<FOR>Starts</FOR>
	<GIVEN>EngineCranks</GIVEN>
<TABLE>
0.9977438762354963 0.0022561237645036527 
4.807692307692308E-4 0.9995192307692308 
</TABLE>
</DEFINITION>
</NETWORK>
</BIF>
