<?xml version="1.0"?>
<!-- DTD for the XMLBIF 0.3 format -->
<!DOCTYPE BIF [
	<!ELEMENT BIF ( NETWORK )*>
	      <!ATTLIST BIF VERSION CDATA #REQUIRED>
	<!ELEMENT NETWORK ( NAME, ( PROPERTY | VARIABLE | DEFINITION )* )>
	<!ELEMENT NAME (#PCDATA)>
	<!ELEMENT VARIABLE ( NAME, ( OUTCOME |  PROPERTY )* ) >
	      <!ATTLIST VARIABLE TYPE (nature|decision|utility) "nature">
	<!ELEMENT OUTCOME (#PCDATA)>
	<!ELEMENT DEFINITION ( FOR | GIVEN | TABLE | PROPERTY )* >
	<!ELEMENT FOR (#PCDATA)>
	<!ELEMENT GIVEN (#PCDATA)>
	<!ELEMENT TABLE (#PCDATA)>
	<!ELEMENT PROPERTY (#PCDATA)>
]>


<BIF VERSION="0.3">
<NETWORK>
<NAME>CarStarts</NAME>
<VARIABLE TYPE="nature">
	<NAME>Alternator</NAME>
	<OUTCOME>Ok</OUTCOME>
	<OUTCOME>Faulted</OUTCOME>
	<PROPERTY>position = (882,0)</PROPERTY>
</VARIABLE>
<VARIABLE TYPE="nature">
	<NAME>FanBelt</NAME>
	<OUTCOME>Ok</OUTCOME>
	<OUTCOME>Slipping</OUTCOME>
	<OUTCOME>Broken</OUTCOME>
	<PROPERTY>position = (294,288)</PROPERTY>
</VARIABLE>
<VARIABLE TYPE="nature">
	<NAME>Leak</NAME>
	<OUTCOME>Leak</OUTCOME>
	<OUTCOME>NoLeak</OUTCOME>
	<PROPERTY>position = (392,0)</PROPERTY>
</VARIABLE>
<VARIABLE TYPE="nature">
	<NAME>Charge</NAME>
	<OUTCOME>Good</OUTCOME>
	<OUTCOME>Low</OUTCOME>
	<PROPERTY>position = (490,192)</PROPERTY>
</VARIABLE>
<VARIABLE TYPE="nature">
	<NAME>BatteryAge</NAME>
	<OUTCOME>New</OUTCOME>
	<OUTCOME>Old</OUTCOME>
	<PROPERTY>position = (1372,576)</PROPERTY>
</VARIABLE>
<VARIABLE TYPE="nature">
	<NAME>BatteryState</NAME>
	<OUTCOME>Ok</OUTCOME>
	<OUTCOME>Weak</OUTCOME>
	<PROPERTY>position = (686,384)</PROPERTY>
</VARIABLE>
<VARIABLE TYPE="nature">
	<NAME>BatteryPower</NAME>
	<OUTCOME>Good</OUTCOME>
	<OUTCOME>Poor</OUTCOME>
	<PROPERTY>position = (588,288)</PROPERTY>
</VARIABLE>
<VARIABLE TYPE="nature">
	<NAME>GasInTank</NAME>
	<OUTCOME>Gas</OUTCOME>
	<OUTCOME>NoGas</OUTCOME>
	<PROPERTY>position = (392,480)</PROPERTY>
</VARIABLE>
<VARIABLE TYPE="nature">
	<NAME>GasGauge</NAME>
	<OUTCOME>Gas</OUTCOME>
	<OUTCOME>NoGas</OUTCOME>
	<PROPERTY>position = (294,384)</PROPERTY>
</VARIABLE>
<VARIABLE TYPE="nature">
	<NAME>Lights</NAME>
	<OUTCOME>Work</OUTCOME>
	<OUTCOME>NoLight</OUTCOME>
	<PROPERTY>position = (784,384)</PROPERTY>
</VARIABLE>
<VARIABLE TYPE="nature">
	<NAME>Radio</NAME>
	<OUTCOME>Works</OUTCOME>
	<OUTCOME>Dead</OUTCOME>
	<PROPERTY>position = (882,384)</PROPERTY>
</VARIABLE>
<VARIABLE TYPE="nature">
	<NAME>Starter</NAME>
	<OUTCOME>Ok</OUTCOME>
	<OUTCOME>Faulted</OUTCOME>
	<PROPERTY>position = (588,576)</PROPERTY>
</VARIABLE>
<VARIABLE TYPE="nature">
	<NAME>Leak2</NAME>
	<OUTCOME>True</OUTCOME>
	<OUTCOME>False</OUTCOME>
	<PROPERTY>position = (1274,480)</PROPERTY>
</VARIABLE>
<VARIABLE TYPE="nature">
	<NAME>EngineCranks</NAME>
	<OUTCOME>Cranks</OUTCOME>
	<OUTCOME>NoCrank</OUTCOME>
	<PROPERTY>position = (784,96)</PROPERTY>
</VARIABLE>
<VARIABLE TYPE="nature">
	<NAME>FuelPump</NAME>
	<OUTCOME>Ok</OUTCOME>
	<OUTCOME>Faulted</OUTCOME>
	<PROPERTY>position = (1470,192)</PROPERTY>
</VARIABLE>
<VARIABLE TYPE="nature">
	<NAME>Distributor</NAME>
	<OUTCOME>Ok</OUTCOME>
	<OUTCOME>Faulted</OUTCOME>
	<PROPERTY>position = (1372,384)</PROPERTY>
</VARIABLE>
<VARIABLE TYPE="nature">
	<NAME>SparkPlugs</NAME>
	<OUTCOME>Ok</OUTCOME>
	<OUTCOME>Bad</OUTCOME>
	<PROPERTY>position = (1078,96)</PROPERTY>
</VARIABLE>
<VARIABLE TYPE="nature">
	<NAME>Starts</NAME>
	<OUTCOME>Yes</OUTCOME>
	<OUTCOME>No</OUTCOME>
	<PROPERTY>position = (1372,288)</PROPERTY>
</VARIABLE>
<DEFINITION>
<FOR>Alternator</FOR>
<TABLE>
0.9999666688887408 3.333111125924938E-5 
</TABLE>
</DEFINITION>
<DEFINITION>
<FOR>FanBelt</FOR>
	<GIVEN>Charge</GIVEN>
	<GIVEN>Alternator</GIVEN>
	<GIVEN>Leak</GIVEN>
<TABLE>
0.3333333333333333 0.3333333333333333 0.3333333333333333 
0.9999329781173553 3.3510941322341746E-5 3.3510941322341746E-5 
0.3333333333333333 0.3333333333333333 0.3333333333333333 
0.3333333333333333 0.3333333333333333 0.3333333333333333 
0.9310344827586207 0.034482758620689655 0.034482758620689655 
0.007194244604316547 0.6258992805755396 0.3669064748201439 
0.3333333333333333 0.3333333333333333 0.3333333333333333 
0.3333333333333333 0.3333333333333333 0.3333333333333333 
</TABLE>
</DEFINITION>
<DEFINITION>
<FOR>Leak</FOR>
<TABLE>
8.999400039997334E-4 0.9991000599960003 
</TABLE>
</DEFINITION>
<DEFINITION>
<FOR>Charge</FOR>
	<GIVEN>SparkPlugs</GIVEN>
	<GIVEN>EngineCranks</GIVEN>
	<GIVEN>Leak</GIVEN>
	<GIVEN>Alternator</GIVEN>
<TABLE>
0.1 0.9 
0.5 0.5 
0.9991044562258203 8.955437741796819E-4 
0.5 0.5 
0.05 0.95 
0.5 0.5 
0.9451988360814743 0.0548011639185257 
0.5 0.5 
0.5 0.5 
0.5 0.5 
0.5 0.5 
0.5 0.5 
0.5 0.5 
0.5 0.5 
0.5 0.5 
0.5 0.5 
</TABLE>
</DEFINITION>
<DEFINITION>
<FOR>BatteryAge</FOR>
	<GIVEN>Leak2</GIVEN>
	<GIVEN>BatteryState</GIVEN>
	<GIVEN>SparkPlugs</GIVEN>
	<GIVEN>Alternator</GIVEN>
<TABLE>
0.9583333333333334 0.041666666666666664 
0.5 0.5 
0.5 0.5 
0.5 0.5 
0.5 0.5 
0.5 0.5 
0.5 0.5 
0.5 0.5 
0.7452830188679245 0.25471698113207547 
0.5 0.5 
0.5 0.5 
0.5 0.5 
0.11454372623574144 0.8854562737642585 
0.5 0.5 
0.5 0.5 
0.5 0.5 
</TABLE>
</DEFINITION>
<DEFINITION>
<FOR>BatteryState</FOR>
	<GIVEN>Charge</GIVEN>
	<GIVEN>SparkPlugs</GIVEN>
	<GIVEN>BatteryPower</GIVEN>
<TABLE>
0.9999639691575989 3.603084240109534E-5 
4.789272030651341E-4 0.9995210727969349 
0.5 0.5 
0.5 0.5 
0.5 0.5 
0.8963414634146342 0.10365853658536585 
0.5 0.5 
0.5 0.5 
</TABLE>
</DEFINITION>
<DEFINITION>
<FOR>BatteryPower</FOR>
	<GIVEN>EngineCranks</GIVEN>
	<GIVEN>Charge</GIVEN>
	<GIVEN>Alternator</GIVEN>
<TABLE>
0.9849060662555571 0.015093933744442851 
0.5 0.5 
0.029411764705882353 0.9705882352941176 
0.5 0.5 
0.14512820512820512 0.8548717948717949 
0.5 0.5 
0.007575757575757576 0.9924242424242424 
0.5 0.5 
</TABLE>
</DEFINITION>
<DEFINITION>
<FOR>GasInTank</FOR>
	<GIVEN>GasGauge</GIVEN>
	<GIVEN>BatteryPower</GIVEN>
<TABLE>
0.9996452894438138 3.547105561861521E-4 
0.9861111111111112 0.013888888888888888 
7.320644216691069E-5 0.9999267935578331 
0.4346758349705305 0.5653241650294696 
</TABLE>
</DEFINITION>
<DEFINITION>
<FOR>GasGauge</FOR>
	<GIVEN>SparkPlugs</GIVEN>
	<GIVEN>BatteryPower</GIVEN>
	<GIVEN>Alternator</GIVEN>
<TABLE>
0.5078547236434388 0.4921452763565612 
0.5 0.5 
0.09555555555555556 0.9044444444444445 
0.5 0.5 
0.5 0.5 
0.5 0.5 
0.5 0.5 
0.5 0.5 
</TABLE>
</DEFINITION>
<DEFINITION>
<FOR>Lights</FOR>
	<GIVEN>BatteryPower</GIVEN>
	<GIVEN>SparkPlugs</GIVEN>
<TABLE>
0.9001585357065648 0.09984146429343518 
0.5 0.5 
0.0022222222222222222 0.9977777777777778 
0.5 0.5 
</TABLE>
</DEFINITION>
<DEFINITION>
<FOR>Radio</FOR>
	<GIVEN>BatteryPower</GIVEN>
	<GIVEN>Alternator</GIVEN>
	<GIVEN>SparkPlugs</GIVEN>
<TABLE>
0.8979966851624991 0.1020033148375009 
0.5 0.5 
0.5 0.5 
0.5 0.5 
0.1 0.9 
0.5 0.5 
0.5 0.5 
0.5 0.5 
</TABLE>
</DEFINITION>
<DEFINITION>
<FOR>Starter</FOR>
	<GIVEN>Leak2</GIVEN>
	<GIVEN>EngineCranks</GIVEN>
	<GIVEN>BatteryPower</GIVEN>
<TABLE>
0.5 0.5 
0.5 0.5 
0.9583333333333334 0.041666666666666664 
0.5 0.5 
0.9999635993011066 3.6400698893418755E-5 
0.9977973568281938 0.0022026431718061676 
0.003816793893129771 0.9961832061068703 
0.9849833147942157 0.015016685205784204 
</TABLE>
</DEFINITION>
<DEFINITION>
<FOR>Leak2</FOR>
	<GIVEN>EngineCranks</GIVEN>
	<GIVEN>SparkPlugs</GIVEN>
	<GIVEN>BatteryState</GIVEN>
	<GIVEN>Alternator</GIVEN>
<TABLE>
3.6360991927859794E-5 0.9999636390080722 
0.5 0.5 
0.0023584905660377358 0.9976415094339622 
0.5 0.5 
0.5 0.5 
0.5 0.5 
0.5 0.5 
0.5 0.5 
0.0575 0.9425 
0.5 0.5 
5.945303210463733E-4 0.9994054696789536 
0.5 0.5 
0.5 0.5 
0.5 0.5 
0.5 0.5 
0.5 0.5 
</TABLE>
</DEFINITION>
<DEFINITION>
<FOR>EngineCranks</FOR>
	<GIVEN>Leak</GIVEN>
	<GIVEN>Alternator</GIVEN>
<TABLE>
0.32142857142857145 0.6785714285714286 
0.5 0.5 
0.9312449959967974 0.06875500400320256 
0.5 0.5 
</TABLE>
</DEFINITION>
<DEFINITION>
<FOR>FuelPump</FOR>
	<GIVEN>SparkPlugs</GIVEN>
	<GIVEN>Alternator</GIVEN>
<TABLE>
0.9987000866608893 0.001299913339110726 
0.5 0.5 
0.5 0.5 
0.5 0.5 
</TABLE>
</DEFINITION>
<DEFINITION>
<FOR>Distributor</FOR>
	<GIVEN>EngineCranks</GIVEN>
	<GIVEN>FuelPump</GIVEN>
	<GIVEN>Starts</GIVEN>
<TABLE>
0.9999641088220516 3.589117794846027E-5 
0.038461538461538464 0.9615384615384616 
0.5 0.5 
0.975 0.025 
0.5 0.5 
0.9956730769230769 0.004326923076923077 
0.5 0.5 
0.5 0.5 
</TABLE>
</DEFINITION>
<DEFINITION>
<FOR>SparkPlugs</FOR>
	<GIVEN>Alternator</GIVEN>
<TABLE>
0.9999666688887408 3.333111125924938E-5 
0.5 0.5 
</TABLE>
</DEFINITION>
<DEFINITION>
<FOR>Starts</FOR>
	<GIVEN>EngineCranks</GIVEN>
	<GIVEN>FuelPump</GIVEN>
<TABLE>
0.999103492792082 8.965072079179517E-4 
0.025 0.975 
4.807692307692308E-4 0.9995192307692308 
0.5 0.5 
</TABLE>
</DEFINITION>
</NETWORK>
</BIF>
