<?xml version="1.0"?>
<!-- DTD for the XMLBIF 0.3 format -->
<!DOCTYPE BIF [
	<!ELEMENT BIF ( NETWORK )*>
	      <!ATTLIST BIF VERSION CDATA #REQUIRED>
	<!ELEMENT NETWORK ( NAME, ( PROPERTY | VARIABLE | DEFINITION )* )>
	<!ELEMENT NAME (#PCDATA)>
	<!ELEMENT VARIABLE ( NAME, ( OUTCOME |  PROPERTY )* ) >
	      <!ATTLIST VARIABLE TYPE (nature|decision|utility) "nature">
	<!ELEMENT OUTCOME (#PCDATA)>
	<!ELEMENT DEFINITION ( FOR | GIVEN | TABLE | PROPERTY )* >
	<!ELEMENT FOR (#PCDATA)>
	<!ELEMENT GIVEN (#PCDATA)>
	<!ELEMENT TABLE (#PCDATA)>
	<!ELEMENT PROPERTY (#PCDATA)>
]>


<BIF VERSION="0.3">
<NETWORK>
<NAME>alarm_15000</NAME>
<VARIABLE TYPE="nature">
	<NAME>Hypovolemia</NAME>
	<OUTCOME>FALSE</OUTCOME>
	<OUTCOME>TRUE</OUTCOME>
	<PROPERTY>position = (2178,192)</PROPERTY>
</VARIABLE>
<VARIABLE TYPE="nature">
	<NAME>LVFailure</NAME>
	<OUTCOME>FALSE</OUTCOME>
	<OUTCOME>TRUE</OUTCOME>
	<PROPERTY>position = (2079,288)</PROPERTY>
</VARIABLE>
<VARIABLE TYPE="nature">
	<NAME>History</NAME>
	<OUTCOME>FALSE</OUTCOME>
	<OUTCOME>TRUE</OUTCOME>
	<PROPERTY>position = (1980,384)</PROPERTY>
</VARIABLE>
<VARIABLE TYPE="nature">
	<NAME>LVEDVolume</NAME>
	<OUTCOME>Normal</OUTCOME>
	<OUTCOME>High</OUTCOME>
	<OUTCOME>Low</OUTCOME>
	<PROPERTY>position = (1980,96)</PROPERTY>
</VARIABLE>
<VARIABLE TYPE="nature">
	<NAME>StrokeVolume</NAME>
	<OUTCOME>Normal</OUTCOME>
	<OUTCOME>Low</OUTCOME>
	<OUTCOME>High</OUTCOME>
	<PROPERTY>position = (2079,384)</PROPERTY>
</VARIABLE>
<VARIABLE TYPE="nature">
	<NAME>CVP</NAME>
	<OUTCOME>Normal</OUTCOME>
	<OUTCOME>Low</OUTCOME>
	<OUTCOME>High</OUTCOME>
	<PROPERTY>position = (1980,0)</PROPERTY>
</VARIABLE>
<VARIABLE TYPE="nature">
	<NAME>PCWP</NAME>
	<OUTCOME>Normal</OUTCOME>
	<OUTCOME>High</OUTCOME>
	<OUTCOME>Low</OUTCOME>
	<PROPERTY>position = (2079,192)</PROPERTY>
</VARIABLE>
<VARIABLE TYPE="nature">
	<NAME>CO</NAME>
	<OUTCOME>Normal</OUTCOME>
	<OUTCOME>Low</OUTCOME>
	<OUTCOME>High</OUTCOME>
	<PROPERTY>position = (1881,480)</PROPERTY>
</VARIABLE>
<VARIABLE TYPE="nature">
	<NAME>InsuffAnesth</NAME>
	<OUTCOME>FALSE</OUTCOME>
	<OUTCOME>TRUE</OUTCOME>
	<PROPERTY>position = (891,1440)</PROPERTY>
</VARIABLE>
<VARIABLE TYPE="nature">
	<NAME>Catechol</NAME>
	<OUTCOME>Normal</OUTCOME>
	<OUTCOME>High</OUTCOME>
	<PROPERTY>position = (891,96)</PROPERTY>
</VARIABLE>
<VARIABLE TYPE="nature">
	<NAME>PAP</NAME>
	<OUTCOME>High</OUTCOME>
	<OUTCOME>Normal</OUTCOME>
	<OUTCOME>Low</OUTCOME>
	<PROPERTY>position = (1188,288)</PROPERTY>
</VARIABLE>
<VARIABLE TYPE="nature">
	<NAME>PulmEmbolus</NAME>
	<OUTCOME>TRUE</OUTCOME>
	<OUTCOME>FALSE</OUTCOME>
	<PROPERTY>position = (990,192)</PROPERTY>
</VARIABLE>
<VARIABLE TYPE="nature">
	<NAME>Shunt</NAME>
	<OUTCOME>Normal</OUTCOME>
	<OUTCOME>High</OUTCOME>
	<PROPERTY>position = (693,1248)</PROPERTY>
</VARIABLE>
<VARIABLE TYPE="nature">
	<NAME>HR</NAME>
	<OUTCOME>Normal</OUTCOME>
	<OUTCOME>Low</OUTCOME>
	<OUTCOME>High</OUTCOME>
	<PROPERTY>position = (594,0)</PROPERTY>
</VARIABLE>
<VARIABLE TYPE="nature">
	<NAME>ErrLowOutput</NAME>
	<OUTCOME>FALSE</OUTCOME>
	<OUTCOME>TRUE</OUTCOME>
	<PROPERTY>position = (0,0)</PROPERTY>
</VARIABLE>
<VARIABLE TYPE="nature">
	<NAME>Anaphylaxis</NAME>
	<OUTCOME>FALSE</OUTCOME>
	<OUTCOME>TRUE</OUTCOME>
	<PROPERTY>position = (1188,768)</PROPERTY>
</VARIABLE>
<VARIABLE TYPE="nature">
	<NAME>TPR</NAME>
	<OUTCOME>High</OUTCOME>
	<OUTCOME>Normal</OUTCOME>
	<OUTCOME>Low</OUTCOME>
	<PROPERTY>position = (1386,672)</PROPERTY>
</VARIABLE>
<VARIABLE TYPE="nature">
	<NAME>ErrCauter</NAME>
	<OUTCOME>FALSE</OUTCOME>
	<OUTCOME>TRUE</OUTCOME>
	<PROPERTY>position = (297,288)</PROPERTY>
</VARIABLE>
<VARIABLE TYPE="nature">
	<NAME>BP</NAME>
	<OUTCOME>High</OUTCOME>
	<OUTCOME>Low</OUTCOME>
	<OUTCOME>Normal</OUTCOME>
	<PROPERTY>position = (1386,576)</PROPERTY>
</VARIABLE>
<VARIABLE TYPE="nature">
	<NAME>HRBP</NAME>
	<OUTCOME>Normal</OUTCOME>
	<OUTCOME>Low</OUTCOME>
	<OUTCOME>High</OUTCOME>
	<PROPERTY>position = (0,96)</PROPERTY>
</VARIABLE>
<VARIABLE TYPE="nature">
	<NAME>HREKG</NAME>
	<OUTCOME>Normal</OUTCOME>
	<OUTCOME>Low</OUTCOME>
	<OUTCOME>High</OUTCOME>
	<PROPERTY>position = (297,384)</PROPERTY>
</VARIABLE>
<VARIABLE TYPE="nature">
	<NAME>HRSat</NAME>
	<OUTCOME>Normal</OUTCOME>
	<OUTCOME>Low</OUTCOME>
	<OUTCOME>High</OUTCOME>
	<PROPERTY>position = (198,384)</PROPERTY>
</VARIABLE>
<VARIABLE TYPE="nature">
	<NAME>SaO2</NAME>
	<OUTCOME>Normal</OUTCOME>
	<OUTCOME>Low</OUTCOME>
	<OUTCOME>High</OUTCOME>
	<PROPERTY>position = (495,1344)</PROPERTY>
</VARIABLE>
<VARIABLE TYPE="nature">
	<NAME>PVSat</NAME>
	<OUTCOME>Normal</OUTCOME>
	<OUTCOME>Low</OUTCOME>
	<OUTCOME>High</OUTCOME>
	<PROPERTY>position = (792,1056)</PROPERTY>
</VARIABLE>
<VARIABLE TYPE="nature">
	<NAME>FiO2</NAME>
	<OUTCOME>Normal</OUTCOME>
	<OUTCOME>Low</OUTCOME>
	<PROPERTY>position = (396,192)</PROPERTY>
</VARIABLE>
<VARIABLE TYPE="nature">
	<NAME>ArtCO2</NAME>
	<OUTCOME>Normal</OUTCOME>
	<OUTCOME>Low</OUTCOME>
	<OUTCOME>High</OUTCOME>
	<PROPERTY>position = (1386,768)</PROPERTY>
</VARIABLE>
<VARIABLE TYPE="nature">
	<NAME>Intubation</NAME>
	<OUTCOME>Normal</OUTCOME>
	<OUTCOME>OneSided</OUTCOME>
	<OUTCOME>Esophageal</OUTCOME>
	<PROPERTY>position = (891,1152)</PROPERTY>
</VARIABLE>
<VARIABLE TYPE="nature">
	<NAME>VentAlv</NAME>
	<OUTCOME>Normal</OUTCOME>
	<OUTCOME>Zero</OUTCOME>
	<OUTCOME>Low</OUTCOME>
	<OUTCOME>High</OUTCOME>
	<PROPERTY>position = (1188,960)</PROPERTY>
</VARIABLE>
<VARIABLE TYPE="nature">
	<NAME>MinVol</NAME>
	<OUTCOME>Zero</OUTCOME>
	<OUTCOME>Normal</OUTCOME>
	<OUTCOME>Low</OUTCOME>
	<OUTCOME>High</OUTCOME>
	<PROPERTY>position = (990,1248)</PROPERTY>
</VARIABLE>
<VARIABLE TYPE="nature">
	<NAME>VentLung</NAME>
	<OUTCOME>Normal</OUTCOME>
	<OUTCOME>Zero</OUTCOME>
	<OUTCOME>Low</OUTCOME>
	<OUTCOME>High</OUTCOME>
	<PROPERTY>position = (1287,1056)</PROPERTY>
</VARIABLE>
<VARIABLE TYPE="nature">
	<NAME>ExpCO2</NAME>
	<OUTCOME>Normal</OUTCOME>
	<OUTCOME>Low</OUTCOME>
	<OUTCOME>Zero</OUTCOME>
	<OUTCOME>High</OUTCOME>
	<PROPERTY>position = (1287,864)</PROPERTY>
</VARIABLE>
<VARIABLE TYPE="nature">
	<NAME>KinkedTube</NAME>
	<OUTCOME>FALSE</OUTCOME>
	<OUTCOME>TRUE</OUTCOME>
	<PROPERTY>position = (990,1344)</PROPERTY>
</VARIABLE>
<VARIABLE TYPE="nature">
	<NAME>Press</NAME>
	<OUTCOME>Normal</OUTCOME>
	<OUTCOME>Zero</OUTCOME>
	<OUTCOME>Low</OUTCOME>
	<OUTCOME>High</OUTCOME>
	<PROPERTY>position = (1089,1248)</PROPERTY>
</VARIABLE>
<VARIABLE TYPE="nature">
	<NAME>VentTube</NAME>
	<OUTCOME>Normal</OUTCOME>
	<OUTCOME>Zero</OUTCOME>
	<OUTCOME>High</OUTCOME>
	<OUTCOME>Low</OUTCOME>
	<PROPERTY>position = (792,1440)</PROPERTY>
</VARIABLE>
<VARIABLE TYPE="nature">
	<NAME>VentMach</NAME>
	<OUTCOME>Normal</OUTCOME>
	<OUTCOME>High</OUTCOME>
	<OUTCOME>Zero</OUTCOME>
	<OUTCOME>Low</OUTCOME>
	<PROPERTY>position = (693,1632)</PROPERTY>
</VARIABLE>
<VARIABLE TYPE="nature">
	<NAME>Disconnect</NAME>
	<OUTCOME>FALSE</OUTCOME>
	<OUTCOME>TRUE</OUTCOME>
	<PROPERTY>position = (693,1536)</PROPERTY>
</VARIABLE>
<VARIABLE TYPE="nature">
	<NAME>MinVolSet</NAME>
	<OUTCOME>Normal</OUTCOME>
	<OUTCOME>High</OUTCOME>
	<OUTCOME>Low</OUTCOME>
	<PROPERTY>position = (693,1728)</PROPERTY>
</VARIABLE>
<DEFINITION>
<FOR>Hypovolemia</FOR>
	<GIVEN>LVEDVolume</GIVEN>
<TABLE>
0.996407701887154 0.003592298112846058 
0.966414380321665 0.03358561967833491 
0.16353008269175934 0.8364699173082406 
</TABLE>
</DEFINITION>
<DEFINITION>
<FOR>LVFailure</FOR>
	<GIVEN>LVEDVolume</GIVEN>
	<GIVEN>Hypovolemia</GIVEN>
<TABLE>
0.9951451643914632 0.00485483560853682 
0.75 0.25 
0.5503913894324853 0.44960861056751467 
0.9583333333333334 0.041666666666666664 
0.9886759581881533 0.01132404181184669 
0.9551806407634629 0.044819359236537154 
</TABLE>
</DEFINITION>
<DEFINITION>
<FOR>History</FOR>
	<GIVEN>LVFailure</GIVEN>
<TABLE>
0.9920878354827466 0.0079121645172534 
0.10578386605783865 0.8942161339421614 
</TABLE>
</DEFINITION>
<DEFINITION>
<FOR>LVEDVolume</FOR>
	<GIVEN>CVP</GIVEN>
<TABLE>
0.9566035006509475 0.02936496455952553 0.014031534789526979 
0.10748226475706063 0.0038816758131441573 0.8886360594297952 
0.13173985547526404 0.8210116731517509 0.04724847137298499 
</TABLE>
</DEFINITION>
<DEFINITION>
<FOR>StrokeVolume</FOR>
	<GIVEN>Hypovolemia</GIVEN>
	<GIVEN>LVFailure</GIVEN>
<TABLE>
0.8992291947916213 0.04994991943561381 0.05082088577276488 
0.4927395934172314 0.5024201355275896 0.00484027105517909 
0.03821322631303437 0.9493980108183563 0.012388762868609317 
0.010526315789473684 0.9789473684210527 0.010526315789473684 
</TABLE>
</DEFINITION>
<DEFINITION>
<FOR>CVP</FOR>
<TABLE>
0.6911642169116422 0.24894177248941773 0.0598940105989401 
</TABLE>
</DEFINITION>
<DEFINITION>
<FOR>PCWP</FOR>
	<GIVEN>LVEDVolume</GIVEN>
<TABLE>
0.9488481249101969 0.010776378179031564 0.04037549691077159 
0.03640661938534279 0.9555555555555556 0.008037825059101654 
0.042052744119743406 0.008980755523877405 0.9489665003563792 
</TABLE>
</DEFINITION>
<DEFINITION>
<FOR>CO</FOR>
	<GIVEN>HR</GIVEN>
	<GIVEN>StrokeVolume</GIVEN>
<TABLE>
0.9460585462120381 0.04330665497204254 0.010634798815919307 
0.03711001642036125 0.9559934318555008 0.006896551724137931 
0.33583489681050654 0.009380863039399626 0.6547842401500938 
0.04653567735263702 0.937952430196484 0.015511892450879007 
0.02127659574468085 0.9756838905775076 0.00303951367781155 
0.47368421052631576 0.5087719298245614 0.017543859649122806 
0.03992210321324245 0.009648579268832433 0.9504293175179251 
0.17699775952203137 0.8122977346278317 0.010704505850136919 
0.01361573373676248 0.01664145234493192 0.9697428139183056 
</TABLE>
</DEFINITION>
<DEFINITION>
<FOR>InsuffAnesth</FOR>
	<GIVEN>Catechol</GIVEN>
	<GIVEN>SaO2</GIVEN>
	<GIVEN>TPR</GIVEN>
	<GIVEN>ArtCO2</GIVEN>
<TABLE>
0.9863455809334657 0.01365441906653426 
0.9731182795698925 0.026881720430107527 
0.9852941176470589 0.014705882352941176 
0.9987113402061856 0.001288659793814433 
0.9869565217391304 0.013043478260869565 
0.9659090909090909 0.03409090909090909 
0.98 0.02 
0.9285714285714286 0.07142857142857142 
0.9545454545454546 0.045454545454545456 
0.9615384615384616 0.038461538461538464 
0.75 0.25 
0.6875 0.3125 
0.9722222222222222 0.027777777777777776 
0.8333333333333334 0.16666666666666666 
0.7307692307692307 0.2692307692307692 
0.7857142857142857 0.21428571428571427 
0.5 0.5 
0.8125 0.1875 
0.9863636363636363 0.013636363636363636 
0.987603305785124 0.012396694214876033 
0.9444444444444444 0.05555555555555555 
0.985207100591716 0.014792899408284023 
0.9660493827160493 0.033950617283950615 
0.9827586206896551 0.017241379310344827 
0.9963235294117647 0.003676470588235294 
0.9870689655172413 0.01293103448275862 
0.9444444444444444 0.05555555555555555 
0.1607806691449814 0.8392193308550185 
0.10975609756097561 0.8902439024390244 
0.7696078431372549 0.23039215686274508 
0.15926395939086294 0.8407360406091371 
0.20238095238095238 0.7976190476190477 
0.7580645161290323 0.24193548387096775 
0.7819744204636291 0.21802557953637092 
0.7815533980582524 0.21844660194174756 
0.7558139534883721 0.2441860465116279 
0.8067375886524822 0.19326241134751773 
0.8166666666666667 0.18333333333333332 
0.7681081081081081 0.23189189189189188 
0.8116147308781869 0.18838526912181303 
0.8875 0.1125 
0.7843216896831844 0.21567831031681559 
0.7828467153284672 0.21715328467153286 
0.765625 0.234375 
0.8107454017424975 0.18925459825750243 
0.07142857142857142 0.9285714285714286 
0.1774193548387097 0.8225806451612904 
0.8333333333333334 0.16666666666666666 
0.12222222222222222 0.8777777777777778 
0.06944444444444445 0.9305555555555556 
0.1 0.9 
0.15476190476190477 0.8452380952380952 
0.18571428571428572 0.8142857142857143 
0.7631578947368421 0.23684210526315788 
</TABLE>
</DEFINITION>
<DEFINITION>
<FOR>Catechol</FOR>
	<GIVEN>HR</GIVEN>
<TABLE>
0.8691301607311692 0.13086983926883075 
0.862555720653789 0.137444279346211 
0.008955410821643287 0.9910445891783567 
</TABLE>
</DEFINITION>
<DEFINITION>
<FOR>PAP</FOR>
	<GIVEN>PulmEmbolus</GIVEN>
<TABLE>
0.7935943060498221 0.19572953736654805 0.010676156583629894 
0.04834314550042052 0.904121110176619 0.04753574432296047 
</TABLE>
</DEFINITION>
<DEFINITION>
<FOR>PulmEmbolus</FOR>
	<GIVEN>Catechol</GIVEN>
<TABLE>
0.0028376844494892167 0.9971623155505108 
0.013865308432371251 0.9861346915676288 
</TABLE>
</DEFINITION>
<DEFINITION>
<FOR>Shunt</FOR>
	<GIVEN>Intubation</GIVEN>
	<GIVEN>Catechol</GIVEN>
	<GIVEN>PulmEmbolus</GIVEN>
	<GIVEN>TPR</GIVEN>
<TABLE>
0.375 0.625 
0.75 0.25 
0.5833333333333334 0.4166666666666667 
0.9947589098532494 0.005241090146750524 
0.9933415918240941 0.0066584081759058535 
0.983 0.017 
0.07142857142857142 0.9285714285714286 
0.031914893617021274 0.9680851063829787 
0.07575757575757576 0.9242424242424242 
0.8533458411507192 0.1466541588492808 
0.8833257816039873 0.11667421839601269 
0.9443848834092736 0.05561511659072635 
0.5 0.5 
0.5 0.5 
0.5 0.5 
0.25 0.75 
0.22727272727272727 0.7727272727272727 
0.125 0.875 
0.25 0.75 
0.16666666666666666 0.8333333333333334 
0.1 0.9 
0.024774774774774775 0.9752252252252253 
0.04716981132075472 0.9528301886792453 
0.056016597510373446 0.9439834024896265 
0.5 0.5 
0.5 0.5 
0.5 0.5 
0.9375 0.0625 
0.8928571428571429 0.10714285714285714 
0.9 0.1 
0.5 0.5 
0.5 0.5 
0.25 0.75 
0.9518518518518518 0.04814814814814815 
0.9311377245508982 0.0688622754491018 
0.9188311688311688 0.08116883116883117 
</TABLE>
</DEFINITION>
<DEFINITION>
<FOR>HR</FOR>
<TABLE>
0.42299103422991036 0.04482885044828851 0.5321801153218012 
</TABLE>
</DEFINITION>
<DEFINITION>
<FOR>ErrLowOutput</FOR>
<TABLE>
0.9467035530964603 0.05329644690353976 
</TABLE>
</DEFINITION>
<DEFINITION>
<FOR>Anaphylaxis</FOR>
	<GIVEN>TPR</GIVEN>
<TABLE>
0.9994297445255474 5.702554744525547E-4 
0.9997477719858753 2.522280141247688E-4 
0.973994006849315 0.02600599315068493 
</TABLE>
</DEFINITION>
<DEFINITION>
<FOR>TPR</FOR>
	<GIVEN>BP</GIVEN>
	<GIVEN>CO</GIVEN>
	<GIVEN>Catechol</GIVEN>
<TABLE>
0.8849701573521432 0.1068909386869235 0.008138903960933261 
0.8934169278996865 0.08463949843260188 0.0219435736677116 
0.8578680203045685 0.13705583756345177 0.005076142131979695 
0.7477477477477478 0.08108108108108109 0.17117117117117117 
0.44173441734417346 0.5555555555555556 0.0027100271002710027 
0.46247674178209636 0.5294604093446351 0.008062848873268556 
0.11092003439380911 0.3619948409286328 0.5270851246775581 
0.025389025389025387 0.05323505323505324 0.9213759213759214 
0.15906717716672467 0.7222415593456317 0.11869126348764358 
0.08932461873638345 0.37379396202925613 0.5368814192343604 
0.02040816326530612 0.14285714285714285 0.8367346938775511 
0.0041071777821239976 0.03735575982788969 0.9585370623899863 
0.2689197594857972 0.7300435413642961 0.0010366991499066972 
0.2675709001233046 0.718865598027127 0.013563501849568433 
0.9747102212855637 0.01791359325605901 0.007376185458377239 
0.9578606158833063 0.004862236628849271 0.03727714748784441 
0.2903225806451613 0.6344086021505376 0.07526881720430108 
0.16035788024776323 0.5099793530626291 0.3296627666896077 
</TABLE>
</DEFINITION>
<DEFINITION>
<FOR>ErrCauter</FOR>
	<GIVEN>FiO2</GIVEN>
<TABLE>
0.8989970382337102 0.10100296176628971 
0.8321917808219178 0.1678082191780822 
</TABLE>
</DEFINITION>
<DEFINITION>
<FOR>BP</FOR>
	<GIVEN>CO</GIVEN>
	<GIVEN>Catechol</GIVEN>
<TABLE>
0.23533171417614726 0.14840853892368658 0.6162597469001662 
0.135181236673774 0.5198294243070363 0.34498933901918977 
0.04859207575380015 0.7154248691751807 0.2359830550710192 
0.02770012706480305 0.816010165184244 0.156289707750953 
0.7267326732673267 0.09306930693069307 0.1801980198019802 
0.42423444766166535 0.4484513468456611 0.1273142054926735 
</TABLE>
</DEFINITION>
<DEFINITION>
<FOR>HRBP</FOR>
	<GIVEN>HR</GIVEN>
	<GIVEN>ErrLowOutput</GIVEN>
<TABLE>
0.9804490100240245 0.007704415541380167 0.011846574434595311 
0.6224 0.3696 0.008 
0.01320901320901321 0.9829059829059829 0.003885003885003885 
0.015873015873015872 0.9365079365079365 0.047619047619047616 
0.00896831196439248 0.008569720321530592 0.9824619677140769 
0.41893362350380847 0.29053318824809576 0.29053318824809576 
</TABLE>
</DEFINITION>
<DEFINITION>
<FOR>HREKG</FOR>
	<GIVEN>HR</GIVEN>
	<GIVEN>ErrCauter</GIVEN>
<TABLE>
0.9808081697332511 0.009771986970684038 0.009419843296064795 
0.32535527299925204 0.337322363500374 0.337322363500374 
0.007518796992481203 0.9866332497911445 0.005847953216374269 
0.28104575163398693 0.39869281045751637 0.3202614379084967 
0.011315515446025685 0.008677542519958347 0.980006942034016 
0.3541799617102744 0.3541799617102744 0.2916400765794512 
</TABLE>
</DEFINITION>
<DEFINITION>
<FOR>HRSat</FOR>
	<GIVEN>HR</GIVEN>
	<GIVEN>ErrCauter</GIVEN>
<TABLE>
0.9779910203362973 0.00906769962144555 0.01294128004225724 
0.31488406881077036 0.3343305908750935 0.3507853403141361 
0.009189640768588136 0.9883040935672515 0.002506265664160401 
0.46405228758169936 0.21568627450980393 0.3202614379084967 
0.009232905241235682 0.009788267962513017 0.9809788267962513 
0.32737715379706445 0.35928525845564774 0.3133375877472878 
</TABLE>
</DEFINITION>
<DEFINITION>
<FOR>SaO2</FOR>
	<GIVEN>PVSat</GIVEN>
	<GIVEN>Shunt</GIVEN>
	<GIVEN>Catechol</GIVEN>
<TABLE>
0.983987943863615 4.7094282754073653E-4 0.015541113308844307 
0.974649467190129 0.01895681435782389 0.006393718452047112 
0.07462686567164178 0.7611940298507462 0.16417910447761194 
0.010023130300693909 0.9876638396299152 0.002313030069390902 
0.15463917525773196 0.5257731958762887 0.31958762886597936 
0.006683215581439756 0.9904525491693718 0.002864235249188467 
0.0967741935483871 0.4838709677419355 0.41935483870967744 
0.014997000599880024 0.976004799040192 0.008998200359928014 
0.0112806901128069 0.0019907100199071004 0.986728599867286 
0.011135857461024499 0.0556792873051225 0.933184855233853 
0.6129032258064516 0.2903225806451613 0.0967741935483871 
0.17355371900826447 0.8181818181818182 0.008264462809917356 
</TABLE>
</DEFINITION>
<DEFINITION>
<FOR>PVSat</FOR>
	<GIVEN>VentAlv</GIVEN>
	<GIVEN>FiO2</GIVEN>
	<GIVEN>Catechol</GIVEN>
	<GIVEN>TPR</GIVEN>
<TABLE>
0.9604180564820992 6.6711140760507E-4 0.038914832110295755 
0.9556285949055053 0.0014790468364831552 0.042892358258011506 
0.7212449255751014 0.0040595399188092015 0.2746955345060893 
0.9444153120083901 0.03093864708966964 0.02464604090194022 
0.9488529522376833 0.022940955246333206 0.028206092515983452 
0.9710241465445462 0.011490424646128226 0.017485428809325562 
0.1111111111111111 0.3333333333333333 0.5555555555555556 
0.14285714285714285 0.7142857142857143 0.14285714285714285 
0.6 0.2 0.2 
0.014492753623188406 0.9710144927536232 0.014492753623188406 
0.04 0.9466666666666667 0.013333333333333334 
0.015873015873015872 0.9682539682539683 0.015873015873015872 
0.25925925925925924 0.6296296296296297 0.1111111111111111 
0.08108108108108109 0.7297297297297297 0.1891891891891892 
0.05263157894736842 0.5789473684210527 0.3684210526315789 
0.006737247353224254 0.9846005774783445 0.008662175168431183 
0.008023340627279359 0.986870897155361 0.005105762217359592 
0.00974313551815766 0.9858281665190434 0.0044286979627989375 
0.3333333333333333 0.3333333333333333 0.3333333333333333 
0.3333333333333333 0.3333333333333333 0.3333333333333333 
0.3333333333333333 0.3333333333333333 0.3333333333333333 
0.1111111111111111 0.7777777777777778 0.1111111111111111 
0.047619047619047616 0.9047619047619048 0.047619047619047616 
0.09090909090909091 0.8181818181818182 0.09090909090909091 
0.058823529411764705 0.6470588235294118 0.29411764705882354 
0.07317073170731707 0.7560975609756098 0.17073170731707318 
0.05263157894736842 0.6842105263157895 0.2631578947368421 
0.008130081300813009 0.9721254355400697 0.019744483159117306 
0.0026431718061674008 0.9929515418502203 0.004405286343612335 
0.012909632571996028 0.974180734856008 0.012909632571996028 
0.3333333333333333 0.3333333333333333 0.3333333333333333 
0.3333333333333333 0.3333333333333333 0.3333333333333333 
0.3333333333333333 0.3333333333333333 0.3333333333333333 
0.07692307692307693 0.8461538461538461 0.07692307692307693 
0.058823529411764705 0.8823529411764706 0.058823529411764705 
0.2727272727272727 0.6363636363636364 0.09090909090909091 
0.011764705882352941 0.00392156862745098 0.984313725490196 
0.0027397260273972603 0.0027397260273972603 0.9945205479452055 
0.00392156862745098 0.00392156862745098 0.9921568627450981 
0.010526315789473684 0.031578947368421054 0.9578947368421052 
0.009345794392523364 0.06542056074766354 0.9252336448598131 
0.04504504504504504 0.02702702702702703 0.9279279279279279 
0.3333333333333333 0.3333333333333333 0.3333333333333333 
0.3333333333333333 0.3333333333333333 0.3333333333333333 
0.3333333333333333 0.3333333333333333 0.3333333333333333 
0.14285714285714285 0.7142857142857143 0.14285714285714285 
0.09090909090909091 0.8181818181818182 0.09090909090909091 
0.14285714285714285 0.7142857142857143 0.14285714285714285 
</TABLE>
</DEFINITION>
<DEFINITION>
<FOR>FiO2</FOR>
	<GIVEN>Catechol</GIVEN>
<TABLE>
0.9989460029187611 0.001053997081238852 
0.9842105263157894 0.015789473684210527 
</TABLE>
</DEFINITION>
<DEFINITION>
<FOR>ArtCO2</FOR>
	<GIVEN>Catechol</GIVEN>
	<GIVEN>TPR</GIVEN>
	<GIVEN>PulmEmbolus</GIVEN>
<TABLE>
0.7777777777777778 0.1111111111111111 0.1111111111111111 
0.890536870691456 0.08919991644035931 0.020263212868184666 
0.8095238095238095 0.14285714285714285 0.047619047619047616 
0.889315910837817 0.08501152959262107 0.025672559569561874 
0.5384615384615384 0.23076923076923078 0.23076923076923078 
0.7142857142857143 0.2374384236453202 0.04827586206896552 
0.726027397260274 0.0684931506849315 0.2054794520547945 
0.41570734203121 0.0498848810437452 0.5344077769250448 
0.7281553398058253 0.02912621359223301 0.24271844660194175 
0.4346919431279621 0.04341232227488152 0.5218957345971564 
0.6363636363636364 0.03896103896103896 0.3246753246753247 
0.6768093102194206 0.040368529518729546 0.2828221602618499 
</TABLE>
</DEFINITION>
<DEFINITION>
<FOR>Intubation</FOR>
	<GIVEN>VentAlv</GIVEN>
	<GIVEN>VentLung</GIVEN>
<TABLE>
0.9973642354010452 0.002499431947284708 1.36332651670075E-4 
0.44680851063829785 0.06382978723404255 0.48936170212765956 
0.9047619047619048 0.047619047619047616 0.047619047619047616 
0.7391304347826086 0.13043478260869565 0.13043478260869565 
0.9578059071729957 0.0379746835443038 0.004219409282700422 
0.6941245940360201 0.04044877472689696 0.265426631237083 
0.7647058823529411 0.17647058823529413 0.058823529411764705 
0.42857142857142855 0.42857142857142855 0.14285714285714285 
0.16334072431633406 0.835920177383592 7.390983000739098E-4 
0.5151515151515151 0.09090909090909091 0.3939393939393939 
0.9408569704284853 0.05491852745926373 0.004224502112251056 
0.14285714285714285 0.8412698412698413 0.015873015873015872 
0.9457013574660633 0.049773755656108594 0.004524886877828055 
0.8181818181818182 0.09090909090909091 0.09090909090909091 
0.9130434782608695 0.043478260869565216 0.043478260869565216 
0.9804560260586319 0.0010857763300760044 0.018458197611292075 
</TABLE>
</DEFINITION>
<DEFINITION>
<FOR>VentAlv</FOR>
	<GIVEN>ExpCO2</GIVEN>
	<GIVEN>ArtCO2</GIVEN>
	<GIVEN>Catechol</GIVEN>
<TABLE>
0.9922547332185886 9.562057754828839E-5 9.562057754828839E-5 0.007554025626314783 
0.9930332261521972 3.215434083601286E-4 0.0031082529474812434 0.003536977491961415 
0.25 0.08333333333333333 0.08333333333333333 0.5833333333333334 
0.7 0.1 0.1 0.1 
0.25 0.25 0.25 0.25 
0.14130434782608695 0.4891304347826087 0.358695652173913 0.010869565217391304 
0.95 0.01 0.01 0.03 
0.96875 0.010416666666666666 0.010416666666666666 0.010416666666666666 
0.3637137989778535 8.517887563884157E-4 8.517887563884157E-4 0.6345826235093697 
0.578125 0.009943181818181818 0.032670454545454544 0.37926136363636365 
0.25 0.25 0.25 0.25 
0.13414634146341464 0.45121951219512196 0.4024390243902439 0.012195121951219513 
0.9666666666666667 0.006666666666666667 0.006666666666666667 0.02 
0.7848837209302325 0.20348837209302326 0.005813953488372093 0.005813953488372093 
0.18421052631578946 0.07894736842105263 0.02631578947368421 0.7105263157894737 
0.10416666666666667 0.6041666666666666 0.020833333333333332 0.2708333333333333 
0.039473684210526314 0.9078947368421053 0.039473684210526314 0.013157894736842105 
0.0027950310559006213 0.9773291925465839 0.01956521739130435 3.1055900621118014E-4 
0.9716981132075472 0.009433962264150943 0.009433962264150943 0.009433962264150943 
0.9444444444444444 0.03333333333333333 0.011111111111111112 0.011111111111111112 
0.35714285714285715 0.07142857142857142 0.07142857142857142 0.5 
0.6875 0.1875 0.0625 0.0625 
0.6926229508196722 0.020491803278688523 0.27459016393442626 0.012295081967213115 
0.1895746887966805 0.06820539419087136 0.7393672199170125 0.0028526970954356845 
</TABLE>
</DEFINITION>
<DEFINITION>
<FOR>MinVol</FOR>
	<GIVEN>VentLung</GIVEN>
	<GIVEN>Intubation</GIVEN>
<TABLE>
0.010042470359228456 0.9707573880729075 0.008980711378517076 0.010219430189347019 
0.015754560530679935 0.9593698175787728 0.015754560530679935 0.00912106135986733 
0.16666666666666666 0.16666666666666666 0.5 0.16666666666666666 
0.9573675496688742 0.014486754966887417 0.01697019867549669 0.011175496688741722 
0.9246575342465754 0.02054794520547945 0.00684931506849315 0.04794520547945205 
0.9669509594882729 0.011727078891257996 0.007462686567164179 0.013859275053304905 
0.013027295285359801 0.013027295285359801 0.9646401985111662 0.009305210918114143 
0.010416666666666666 0.010416666666666666 0.9479166666666666 0.03125 
0.3 0.3 0.3 0.1 
0.013948497854077254 0.0075107296137339056 0.016094420600858368 0.9624463519313304 
0.016666666666666666 0.016666666666666666 0.016666666666666666 0.95 
0.7727272727272727 0.045454545454545456 0.13636363636363635 0.045454545454545456 
</TABLE>
</DEFINITION>
<DEFINITION>
<FOR>VentLung</FOR>
	<GIVEN>VentAlv</GIVEN>
	<GIVEN>ExpCO2</GIVEN>
<TABLE>
0.9983218063466233 5.085435313262815E-5 7.628152969894223E-4 8.645240032546786E-4 
0.9912790697674418 9.689922480620155E-4 0.0029069767441860465 0.0048449612403100775 
0.8443708609271523 0.1490066225165563 0.0033112582781456954 0.0033112582781456954 
0.9954627949183303 9.074410163339383E-4 0.0027223230490018148 9.074410163339383E-4 
0.14 0.82 0.02 0.02 
0.2391304347826087 0.717391304347826 0.021739130434782608 0.021739130434782608 
9.140767824497258E-4 0.9984765386959171 3.046922608165753E-4 3.046922608165753E-4 
0.791970802919708 0.13503649635036497 0.05474452554744526 0.01824817518248175 
0.421875 0.015625 0.515625 0.046875 
0.5 0.017241379310344827 0.43103448275862066 0.05172413793103448 
0.22058823529411764 0.45588235294117646 0.25 0.07352941176470588 
0.43938356164383563 3.4246575342465754E-4 0.5421232876712329 0.018150684931506848 
0.20833333333333334 0.008333333333333333 0.008333333333333333 0.775 
0.1860236220472441 9.84251968503937E-4 0.02066929133858268 0.7923228346456693 
0.022727272727272728 0.7045454545454546 0.022727272727272728 0.25 
0.3181818181818182 0.045454545454545456 0.045454545454545456 0.5909090909090909 
</TABLE>
</DEFINITION>
<DEFINITION>
<FOR>ExpCO2</FOR>
	<GIVEN>ArtCO2</GIVEN>
<TABLE>
0.9661521930253004 0.009231220084008987 0.015385366806681644 0.009231220084008987 
0.007545271629778672 0.9411468812877264 0.039738430583501 0.011569416498993963 
0.011788079470198675 0.010463576158940398 0.43562913907284767 0.5421192052980133 
</TABLE>
</DEFINITION>
<DEFINITION>
<FOR>KinkedTube</FOR>
	<GIVEN>VentLung</GIVEN>
	<GIVEN>Press</GIVEN>
	<GIVEN>Intubation</GIVEN>
<TABLE>
0.9999543670712786 4.5632928721365335E-5 
0.9978991596638656 0.0021008403361344537 
0.5 0.5 
0.9955357142857143 0.004464285714285714 
0.9375 0.0625 
0.5 0.5 
0.9958677685950413 0.004132231404958678 
0.9375 0.0625 
0.75 0.25 
0.9692982456140351 0.03070175438596491 
0.9985754985754985 0.0014245014245014246 
0.5 0.5 
0.8622047244094488 0.1377952755905512 
0.4166666666666667 0.5833333333333334 
0.7941176470588235 0.20588235294117646 
0.9605714285714285 0.03942857142857143 
0.9519230769230769 0.04807692307692308 
0.9653846153846154 0.03461538461538462 
0.6590909090909091 0.3409090909090909 
0.25 0.75 
0.988562091503268 0.011437908496732025 
0.09946236559139784 0.9005376344086021 
0.16666666666666666 0.8333333333333334 
0.25 0.75 
0.8274647887323944 0.17253521126760563 
0.8333333333333334 0.16666666666666666 
0.5 0.5 
0.8529411764705882 0.14705882352941177 
0.5 0.5 
0.75 0.25 
0.9845070422535211 0.015492957746478873 
0.9791666666666666 0.020833333333333332 
0.8333333333333334 0.16666666666666666 
0.04591836734693878 0.9540816326530612 
0.3409090909090909 0.6590909090909091 
0.5 0.5 
0.9945652173913043 0.005434782608695652 
0.75 0.25 
0.5 0.5 
0.9166666666666666 0.08333333333333333 
0.75 0.25 
0.9 0.1 
0.9444444444444444 0.05555555555555555 
0.5 0.5 
0.9166666666666666 0.08333333333333333 
0.9847645429362881 0.015235457063711912 
0.9444444444444444 0.05555555555555555 
0.5 0.5 
</TABLE>
</DEFINITION>
<DEFINITION>
<FOR>Press</FOR>
	<GIVEN>VentLung</GIVEN>
	<GIVEN>Intubation</GIVEN>
<TABLE>
0.9694301893470182 0.009865510529109892 0.010661829764643426 0.010042470359228456 
0.3938640132669983 0.012437810945273632 0.012437810945273632 0.5812603648424544 
0.16666666666666666 0.16666666666666666 0.5 0.16666666666666666 
0.10471854304635761 0.7239238410596026 0.017798013245033113 0.15355960264900662 
0.07534246575342465 0.7054794520547946 0.02054794520547945 0.19863013698630136 
0.035181236673773986 0.27611940298507465 0.6513859275053305 0.03731343283582089 
0.17555831265508684 0.020471464019851116 0.43982630272952855 0.3641439205955335 
0.052083333333333336 0.010416666666666666 0.4895833333333333 0.4479166666666667 
0.1 0.3 0.5 0.1 
0.1963519313304721 0.011802575107296138 0.018240343347639486 0.7736051502145923 
0.05 0.05 0.016666666666666666 0.8833333333333333 
0.045454545454545456 0.4090909090909091 0.5 0.045454545454545456 
</TABLE>
</DEFINITION>
<DEFINITION>
<FOR>VentTube</FOR>
	<GIVEN>Press</GIVEN>
	<GIVEN>VentLung</GIVEN>
	<GIVEN>Intubation</GIVEN>
	<GIVEN>KinkedTube</GIVEN>
<TABLE>
0.9997718561781347 1.3688629311918235E-4 4.5628764373060775E-5 4.5628764373060775E-5 
0.25 0.25 0.25 0.25 
0.9937238493723849 0.0020920502092050207 0.0020920502092050207 0.0020920502092050207 
0.25 0.25 0.25 0.25 
0.25 0.25 0.25 0.25 
0.25 0.25 0.25 0.25 
0.9054054054054054 0.08558558558558559 0.0045045045045045045 0.0045045045045045045 
0.6052631578947368 0.02631578947368421 0.07894736842105263 0.2894736842105263 
0.625 0.125 0.125 0.125 
0.5 0.1 0.1 0.3 
0.9 0.03333333333333333 0.03333333333333333 0.03333333333333333 
0.7 0.1 0.1 0.1 
0.9369747899159664 0.004201680672268907 0.004201680672268907 0.0546218487394958 
0.9038461538461539 0.019230769230769232 0.019230769230769232 0.057692307692307696 
0.375 0.125 0.125 0.375 
0.25 0.25 0.25 0.25 
0.25 0.25 0.25 0.25 
0.25 0.25 0.25 0.25 
0.9516129032258065 0.005376344086021506 0.03763440860215054 0.005376344086021506 
0.25 0.25 0.25 0.25 
0.5 0.16666666666666666 0.16666666666666666 0.16666666666666666 
0.25 0.25 0.25 0.25 
0.25 0.25 0.25 0.25 
0.25 0.25 0.25 0.25 
0.9247787610619469 0.06637168141592921 0.004424778761061947 0.004424778761061947 
0.25 0.25 0.25 0.25 
0.8333333333333334 0.05555555555555555 0.05555555555555555 0.05555555555555555 
0.25 0.25 0.25 0.25 
0.25 0.25 0.25 0.25 
0.25 0.25 0.25 0.25 
5.938242280285036E-4 0.9982185273159145 5.938242280285036E-4 5.938242280285036E-4 
0.125 0.8194444444444444 0.013888888888888888 0.041666666666666664 
0.00980392156862745 0.9705882352941176 0.00980392156862745 0.00980392156862745 
0.125 0.625 0.125 0.125 
0.7283464566929134 0.18503937007874016 0.011811023622047244 0.07480314960629922 
0.08333333333333333 0.75 0.08333333333333333 0.08333333333333333 
0.15625 0.46875 0.03125 0.34375 
0.625 0.125 0.125 0.125 
0.25 0.25 0.25 0.25 
0.25 0.25 0.25 0.25 
0.5 0.16666666666666666 0.16666666666666666 0.16666666666666666 
0.25 0.25 0.25 0.25 
0.21428571428571427 0.5 0.21428571428571427 0.07142857142857142 
0.25 0.25 0.25 0.25 
0.16666666666666666 0.16666666666666666 0.5 0.16666666666666666 
0.25 0.25 0.25 0.25 
0.75 0.08333333333333333 0.08333333333333333 0.08333333333333333 
0.25 0.25 0.25 0.25 
0.9549180327868853 0.004098360655737705 0.004098360655737705 0.036885245901639344 
0.25 0.25 0.25 0.25 
0.7222222222222222 0.05555555555555555 0.05555555555555555 0.16666666666666666 
0.25 0.25 0.25 0.25 
0.5 0.16666666666666666 0.16666666666666666 0.16666666666666666 
0.25 0.25 0.25 0.25 
0.03125 0.53125 0.03125 0.40625 
0.05555555555555555 0.05555555555555555 0.05555555555555555 0.8333333333333334 
0.25 0.25 0.25 0.25 
0.5 0.16666666666666666 0.16666666666666666 0.16666666666666666 
0.9457236842105263 0.001644736842105263 0.03125 0.02138157894736842 
0.7 0.1 0.1 0.1 
0.0014245014245014246 0.004273504273504274 0.0014245014245014246 0.9928774928774928 
0.7857142857142857 0.07142857142857142 0.07142857142857142 0.07142857142857142 
0.02 0.02 0.02 0.94 
0.25 0.25 0.25 0.25 
0.625 0.125 0.125 0.125 
0.25 0.25 0.25 0.25 
0.15 0.05 0.25 0.55 
0.25 0.25 0.25 0.25 
0.25 0.25 0.25 0.25 
0.25 0.25 0.25 0.25 
0.7857142857142857 0.07142857142857142 0.07142857142857142 0.07142857142857142 
0.25 0.25 0.25 0.25 
0.9419642857142857 0.004464285714285714 0.049107142857142856 0.004464285714285714 
0.7 0.1 0.1 0.1 
0.9957386363636364 0.0014204545454545455 0.0014204545454545455 0.0014204545454545455 
0.25 0.25 0.25 0.25 
0.25 0.25 0.25 0.25 
0.25 0.25 0.25 0.25 
0.175 0.525 0.275 0.025 
0.9674556213017751 0.0029585798816568047 0.020710059171597635 0.008875739644970414 
0.625 0.125 0.125 0.125 
0.8214285714285714 0.03571428571428571 0.03571428571428571 0.10714285714285714 
0.75 0.08333333333333333 0.08333333333333333 0.08333333333333333 
0.7666666666666667 0.03333333333333333 0.16666666666666666 0.03333333333333333 
0.1 0.03333333333333333 0.43333333333333335 0.43333333333333335 
0.9379432624113475 0.0017730496453900709 0.05851063829787234 0.0017730496453900709 
0.6111111111111112 0.05555555555555555 0.05555555555555555 0.2777777777777778 
0.78125 0.03125 0.15625 0.03125 
0.25 0.25 0.25 0.25 
0.25 0.25 0.25 0.25 
0.012605042016806723 0.0014005602240896359 0.9845938375350141 0.0014005602240896359 
0.7857142857142857 0.07142857142857142 0.07142857142857142 0.07142857142857142 
0.2037037037037037 0.018518518518518517 0.7592592592592593 0.018518518518518517 
0.5 0.16666666666666666 0.16666666666666666 0.16666666666666666 
0.25 0.25 0.25 0.25 
0.25 0.25 0.25 0.25 
</TABLE>
</DEFINITION>
<DEFINITION>
<FOR>VentMach</FOR>
	<GIVEN>VentTube</GIVEN>
	<GIVEN>Disconnect</GIVEN>
<TABLE>
0.9995050635802939 1.9036016142541688E-4 1.9036016142541688E-4 1.1421609685525013E-4 
0.6818181818181818 0.045454545454545456 0.22727272727272727 0.045454545454545456 
0.4634615384615385 0.009615384615384616 0.5173076923076924 0.009615384615384616 
0.9409769335142469 0.022388059701492536 0.006105834464043419 0.030529172320217096 
0.34624413145539906 0.6443661971830986 0.0011737089201877935 0.008215962441314555 
0.5833333333333334 0.08333333333333333 0.25 0.08333333333333333 
0.31986143187066973 0.005773672055427252 0.003464203233256351 0.6709006928406467 
0.85 0.05 0.05 0.05 
</TABLE>
</DEFINITION>
<DEFINITION>
<FOR>Disconnect</FOR>
	<GIVEN>VentTube</GIVEN>
<TABLE>
0.99927707176014 7.229282398599803E-4 
0.26006036217303824 0.7399396378269618 
0.9895104895104895 0.01048951048951049 
0.9806818181818182 0.019318181818181818 
</TABLE>
</DEFINITION>
<DEFINITION>
<FOR>MinVolSet</FOR>
	<GIVEN>VentMach</GIVEN>
<TABLE>
0.9997191701477867 1.0531119457998385E-4 1.7551865763330642E-4 
0.4857142857142857 0.5058823529411764 0.008403361344537815 
0.9862542955326461 0.003436426116838488 0.010309278350515464 
0.5054773082942097 0.001564945226917058 0.49295774647887325 
</TABLE>
</DEFINITION>
</NETWORK>
</BIF>
