<?xml version="1.0"?>
<!-- DTD for the XMLBIF 0.3 format -->
<!DOCTYPE BIF [
	<!ELEMENT BIF ( NETWORK )*>
	      <!ATTLIST BIF VERSION CDATA #REQUIRED>
	<!ELEMENT NETWORK ( NAME, ( PROPERTY | VARIABLE | DEFINITION )* )>
	<!ELEMENT NAME (#PCDATA)>
	<!ELEMENT VARIABLE ( NAME, ( OUTCOME |  PROPERTY )* ) >
	      <!ATTLIST VARIABLE TYPE (nature|decision|utility) "nature">
	<!ELEMENT OUTCOME (#PCDATA)>
	<!ELEMENT DEFINITION ( FOR | GIVEN | TABLE | PROPERTY )* >
	<!ELEMENT FOR (#PCDATA)>
	<!ELEMENT GIVEN (#PCDATA)>
	<!ELEMENT TABLE (#PCDATA)>
	<!ELEMENT PROPERTY (#PCDATA)>
]>


<BIF VERSION="0.3">
<NETWORK>
<NAME>Asia</NAME>
<VARIABLE TYPE="nature">
	<NAME>VisitAsia</NAME>
	<OUTCOME>Visit</OUTCOME>
	<OUTCOME>NoVisit</OUTCOME>
	<PROPERTY>position = (186,0)</PROPERTY>
</VARIABLE>
<VARIABLE TYPE="nature">
	<NAME>Tuberculosis</NAME>
	<OUTCOME>Present</OUTCOME>
	<OUTCOME>Absent</OUTCOME>
	<PROPERTY>position = (186,96)</PROPERTY>
</VARIABLE>
<VARIABLE TYPE="nature">
	<NAME>Smoking</NAME>
	<OUTCOME>Smoker</OUTCOME>
	<OUTCOME>NonSmoker</OUTCOME>
	<PROPERTY>position = (279,480)</PROPERTY>
</VARIABLE>
<VARIABLE TYPE="nature">
	<NAME>Cancer</NAME>
	<OUTCOME>Present</OUTCOME>
	<OUTCOME>Absent</OUTCOME>
	<PROPERTY>position = (279,96)</PROPERTY>
</VARIABLE>
<VARIABLE TYPE="nature">
	<NAME>TbOrCa</NAME>
	<OUTCOME>True</OUTCOME>
	<OUTCOME>False</OUTCOME>
	<PROPERTY>position = (186,192)</PROPERTY>
</VARIABLE>
<VARIABLE TYPE="nature">
	<NAME>XRay</NAME>
	<OUTCOME>Abnormal</OUTCOME>
	<OUTCOME>Normal</OUTCOME>
	<PROPERTY>position = (0,288)</PROPERTY>
</VARIABLE>
<VARIABLE TYPE="nature">
	<NAME>Bronchitis</NAME>
	<OUTCOME>Present</OUTCOME>
	<OUTCOME>Absent</OUTCOME>
	<PROPERTY>position = (186,384)</PROPERTY>
</VARIABLE>
<VARIABLE TYPE="nature">
	<NAME>Dyspnea</NAME>
	<OUTCOME>Present</OUTCOME>
	<OUTCOME>Absent</OUTCOME>
	<PROPERTY>position = (93,288)</PROPERTY>
</VARIABLE>
<DEFINITION>
<FOR>VisitAsia</FOR>
<TABLE>
0.011632557829478035 0.988367442170522 
</TABLE>
</DEFINITION>
<DEFINITION>
<FOR>Tuberculosis</FOR>
	<GIVEN>VisitAsia</GIVEN>
<TABLE>
0.054285714285714284 0.9457142857142857 
0.011634180886221084 0.988365819113779 
</TABLE>
</DEFINITION>
<DEFINITION>
<FOR>Smoking</FOR>
	<GIVEN>Bronchitis</GIVEN>
	<GIVEN>Cancer</GIVEN>
<TABLE>
0.949438202247191 0.05056179775280899 
0.6350767754318618 0.3649232245681382 
0.8068493150684931 0.19315068493150686 
0.35337446487030977 0.6466255351296902 
</TABLE>
</DEFINITION>
<DEFINITION>
<FOR>Cancer</FOR>
<TABLE>
0.05389640690620625 0.9461035930937938 
</TABLE>
</DEFINITION>
<DEFINITION>
<FOR>TbOrCa</FOR>
	<GIVEN>Cancer</GIVEN>
	<GIVEN>Tuberculosis</GIVEN>
<TABLE>
0.9375 0.0625 
0.9993765586034913 6.234413965087282E-4 
0.9971428571428571 0.002857142857142857 
8.916470504315571E-4 0.9991083529495685 
</TABLE>
</DEFINITION>
<DEFINITION>
<FOR>XRay</FOR>
	<GIVEN>TbOrCa</GIVEN>
<TABLE>
0.978391959798995 0.021608040201005024 
0.05086742343114157 0.9491325765688584 
</TABLE>
</DEFINITION>
<DEFINITION>
<FOR>Bronchitis</FOR>
	<GIVEN>Dyspnea</GIVEN>
	<GIVEN>TbOrCa</GIVEN>
<TABLE>
0.5815822002472187 0.4184177997527812 
0.8589431600903876 0.14105683990961237 
0.2914438502673797 0.7085561497326203 
0.149061175045427 0.850938824954573 
</TABLE>
</DEFINITION>
<DEFINITION>
<FOR>Dyspnea</FOR>
	<GIVEN>TbOrCa</GIVEN>
<TABLE>
0.8125628140703518 0.18743718592964825 
0.41068751338616405 0.589312486613836 
</TABLE>
</DEFINITION>
</NETWORK>
</BIF>
