<?xml version="1.0"?>
<!-- DTD for the XMLBIF 0.3 format -->
<!DOCTYPE BIF [
	<!ELEMENT BIF ( NETWORK )*>
	      <!ATTLIST BIF VERSION CDATA #REQUIRED>
	<!ELEMENT NETWORK ( NAME, ( PROPERTY | VARIABLE | DEFINITION )* )>
	<!ELEMENT NAME (#PCDATA)>
	<!ELEMENT VARIABLE ( NAME, ( OUTCOME |  PROPERTY )* ) >
	      <!ATTLIST VARIABLE TYPE (nature|decision|utility) "nature">
	<!ELEMENT OUTCOME (#PCDATA)>
	<!ELEMENT DEFINITION ( FOR | GIVEN | TABLE | PROPERTY )* >
	<!ELEMENT FOR (#PCDATA)>
	<!ELEMENT GIVEN (#PCDATA)>
	<!ELEMENT TABLE (#PCDATA)>
	<!ELEMENT PROPERTY (#PCDATA)>
]>


<BIF VERSION="0.3">
<NETWORK>
<NAME>Asia</NAME>
<VARIABLE TYPE="nature">
	<NAME>VisitAsia</NAME>
	<OUTCOME>Visit</OUTCOME>
	<OUTCOME>NoVisit</OUTCOME>
	<PROPERTY>position = (93,0)</PROPERTY>
</VARIABLE>
<VARIABLE TYPE="nature">
	<NAME>Tuberculosis</NAME>
	<OUTCOME>Present</OUTCOME>
	<OUTCOME>Absent</OUTCOME>
	<PROPERTY>position = (186,192)</PROPERTY>
</VARIABLE>
<VARIABLE TYPE="nature">
	<NAME>Smoking</NAME>
	<OUTCOME>Smoker</OUTCOME>
	<OUTCOME>NonSmoker</OUTCOME>
	<PROPERTY>position = (279,96)</PROPERTY>
</VARIABLE>
<VARIABLE TYPE="nature">
	<NAME>Cancer</NAME>
	<OUTCOME>Present</OUTCOME>
	<OUTCOME>Absent</OUTCOME>
	<PROPERTY>position = (186,0)</PROPERTY>
</VARIABLE>
<VARIABLE TYPE="nature">
	<NAME>TbOrCa</NAME>
	<OUTCOME>True</OUTCOME>
	<OUTCOME>False</OUTCOME>
	<PROPERTY>position = (93,96)</PROPERTY>
</VARIABLE>
<VARIABLE TYPE="nature">
	<NAME>XRay</NAME>
	<OUTCOME>Abnormal</OUTCOME>
	<OUTCOME>Normal</OUTCOME>
	<PROPERTY>position = (0,192)</PROPERTY>
</VARIABLE>
<VARIABLE TYPE="nature">
	<NAME>Bronchitis</NAME>
	<OUTCOME>Present</OUTCOME>
	<OUTCOME>Absent</OUTCOME>
	<PROPERTY>position = (279,192)</PROPERTY>
</VARIABLE>
<VARIABLE TYPE="nature">
	<NAME>Dyspnea</NAME>
	<OUTCOME>Present</OUTCOME>
	<OUTCOME>Absent</OUTCOME>
	<PROPERTY>position = (186,288)</PROPERTY>
</VARIABLE>
<DEFINITION>
<FOR>VisitAsia</FOR>
<TABLE>
0.011632557829478035 0.988367442170522 
</TABLE>
</DEFINITION>
<DEFINITION>
<FOR>Tuberculosis</FOR>
	<GIVEN>Cancer</GIVEN>
	<GIVEN>TbOrCa</GIVEN>
<TABLE>
0.009270704573547589 0.9907292954264524 
0.5 0.5 
0.9331550802139037 0.06684491978609626 
3.5696437495537944E-5 0.9999643035625044 
</TABLE>
</DEFINITION>
<DEFINITION>
<FOR>Smoking</FOR>
	<GIVEN>Cancer</GIVEN>
<TABLE>
0.8856613102595797 0.11433868974042027 
0.4774536743465088 0.5225463256534911 
</TABLE>
</DEFINITION>
<DEFINITION>
<FOR>Cancer</FOR>
<TABLE>
0.05389640690620625 0.9461035930937938 
</TABLE>
</DEFINITION>
<DEFINITION>
<FOR>TbOrCa</FOR>
	<GIVEN>Cancer</GIVEN>
	<GIVEN>VisitAsia</GIVEN>
<TABLE>
0.95 0.05 
0.999375 6.25E-4 
0.05120481927710843 0.9487951807228916 
0.012724550898203593 0.9872754491017964 
</TABLE>
</DEFINITION>
<DEFINITION>
<FOR>XRay</FOR>
	<GIVEN>TbOrCa</GIVEN>
<TABLE>
0.978391959798995 0.021608040201005024 
0.05086742343114157 0.9491325765688584 
</TABLE>
</DEFINITION>
<DEFINITION>
<FOR>Bronchitis</FOR>
	<GIVEN>Smoking</GIVEN>
<TABLE>
0.5862137995462432 0.41378620045375686 
0.306765215075243 0.693234784924757 
</TABLE>
</DEFINITION>
<DEFINITION>
<FOR>Dyspnea</FOR>
	<GIVEN>TbOrCa</GIVEN>
	<GIVEN>Bronchitis</GIVEN>
<TABLE>
0.8961904761904762 0.10380952380952381 
0.7186836518046709 0.2813163481953291 
0.8006318859364874 0.19936811406351262 
0.10356049004594181 0.8964395099540582 
</TABLE>
</DEFINITION>
</NETWORK>
</BIF>
