<?xml version="1.0"?>
<!-- DTD for the XMLBIF 0.3 format -->
<!DOCTYPE BIF [
	<!ELEMENT BIF ( NETWORK )*>
	      <!ATTLIST BIF VERSION CDATA #REQUIRED>
	<!ELEMENT NETWORK ( NAME, ( PROPERTY | VARIABLE | DEFINITION )* )>
	<!ELEMENT NAME (#PCDATA)>
	<!ELEMENT VARIABLE ( NAME, ( OUTCOME |  PROPERTY )* ) >
	      <!ATTLIST VARIABLE TYPE (nature|decision|utility) "nature">
	<!ELEMENT OUTCOME (#PCDATA)>
	<!ELEMENT DEFINITION ( FOR | GIVEN | TABLE | PROPERTY )* >
	<!ELEMENT FOR (#PCDATA)>
	<!ELEMENT GIVEN (#PCDATA)>
	<!ELEMENT TABLE (#PCDATA)>
	<!ELEMENT PROPERTY (#PCDATA)>
]>


<BIF VERSION="0.3">
<NETWORK>
<NAME>Cancer</NAME>
<VARIABLE TYPE="nature">
	<NAME>MetastaticCancer</NAME>
	<OUTCOME>Present</OUTCOME>
	<OUTCOME>Absent</OUTCOME>
	<PROPERTY>position = (120,0)</PROPERTY>
</VARIABLE>
<VARIABLE TYPE="nature">
	<NAME>SerumCalcium</NAME>
	<OUTCOME>Increased</OUTCOME>
	<OUTCOME>NotIncreased</OUTCOME>
	<PROPERTY>position = (120,96)</PROPERTY>
</VARIABLE>
<VARIABLE TYPE="nature">
	<NAME>BrainTumor</NAME>
	<OUTCOME>Present</OUTCOME>
	<OUTCOME>Absent</OUTCOME>
	<PROPERTY>position = (120,288)</PROPERTY>
</VARIABLE>
<VARIABLE TYPE="nature">
	<NAME>Coma</NAME>
	<OUTCOME>Present</OUTCOME>
	<OUTCOME>Absent</OUTCOME>
	<PROPERTY>position = (0,192)</PROPERTY>
</VARIABLE>
<VARIABLE TYPE="nature">
	<NAME>SevereHeadaches</NAME>
	<OUTCOME>Present</OUTCOME>
	<OUTCOME>Absent</OUTCOME>
	<PROPERTY>position = (120,384)</PROPERTY>
</VARIABLE>
<DEFINITION>
<FOR>MetastaticCancer</FOR>
<TABLE>
0.19855342977134857 0.8014465702286514 
</TABLE>
</DEFINITION>
<DEFINITION>
<FOR>SerumCalcium</FOR>
	<GIVEN>MetastaticCancer</GIVEN>
<TABLE>
0.7933870426317556 0.20661295736824437 
0.2048157697745987 0.7951842302254013 
</TABLE>
</DEFINITION>
<DEFINITION>
<FOR>BrainTumor</FOR>
	<GIVEN>Coma</GIVEN>
	<GIVEN>MetastaticCancer</GIVEN>
	<GIVEN>SerumCalcium</GIVEN>
<TABLE>
0.2004729374671571 0.7995270625328429 
0.8366336633663366 0.16336633663366337 
0.045361353152229625 0.9546386468477703 
0.4563953488372093 0.5436046511627907 
0.2196969696969697 0.7803030303030303 
0.05910852713178295 0.9408914728682171 
0.04191033138401559 0.9580896686159844 
0.010399908067111009 0.989600091932889 
</TABLE>
</DEFINITION>
<DEFINITION>
<FOR>Coma</FOR>
	<GIVEN>SerumCalcium</GIVEN>
	<GIVEN>MetastaticCancer</GIVEN>
<TABLE>
0.8047800338409475 0.19521996615905246 
0.7919204222492895 0.2080795777507105 
0.16314935064935066 0.8368506493506493 
0.08989645434577972 0.9101035456542202 
</TABLE>
</DEFINITION>
<DEFINITION>
<FOR>SevereHeadaches</FOR>
	<GIVEN>BrainTumor</GIVEN>
<TABLE>
0.8169191919191919 0.1830808080808081 
0.6043506587519908 0.39564934124800927 
</TABLE>
</DEFINITION>
</NETWORK>
</BIF>
