<?xml version="1.0"?>
<!-- DTD for the XMLBIF 0.3 format -->
<!DOCTYPE BIF [
	<!ELEMENT BIF ( NETWORK )*>
	      <!ATTLIST BIF VERSION CDATA #REQUIRED>
	<!ELEMENT NETWORK ( NAME, ( PROPERTY | VARIABLE | DEFINITION )* )>
	<!ELEMENT NAME (#PCDATA)>
	<!ELEMENT VARIABLE ( NAME, ( OUTCOME |  PROPERTY )* ) >
	      <!ATTLIST VARIABLE TYPE (nature|decision|utility) "nature">
	<!ELEMENT OUTCOME (#PCDATA)>
	<!ELEMENT DEFINITION ( FOR | GIVEN | TABLE | PROPERTY )* >
	<!ELEMENT FOR (#PCDATA)>
	<!ELEMENT GIVEN (#PCDATA)>
	<!ELEMENT TABLE (#PCDATA)>
	<!ELEMENT PROPERTY (#PCDATA)>
]>


<BIF VERSION="0.3">
<NETWORK>
<NAME>Cancer</NAME>
<VARIABLE TYPE="nature">
	<NAME>MetastaticCancer</NAME>
	<OUTCOME>Present</OUTCOME>
	<OUTCOME>Absent</OUTCOME>
	<PROPERTY>position = (240,288)</PROPERTY>
</VARIABLE>
<VARIABLE TYPE="nature">
	<NAME>SerumCalcium</NAME>
	<OUTCOME>Increased</OUTCOME>
	<OUTCOME>NotIncreased</OUTCOME>
	<PROPERTY>position = (120,192)</PROPERTY>
</VARIABLE>
<VARIABLE TYPE="nature">
	<NAME>BrainTumor</NAME>
	<OUTCOME>Present</OUTCOME>
	<OUTCOME>Absent</OUTCOME>
	<PROPERTY>position = (120,0)</PROPERTY>
</VARIABLE>
<VARIABLE TYPE="nature">
	<NAME>Coma</NAME>
	<OUTCOME>Present</OUTCOME>
	<OUTCOME>Absent</OUTCOME>
	<PROPERTY>position = (0,96)</PROPERTY>
</VARIABLE>
<VARIABLE TYPE="nature">
	<NAME>SevereHeadaches</NAME>
	<OUTCOME>Present</OUTCOME>
	<OUTCOME>Absent</OUTCOME>
	<PROPERTY>position = (120,96)</PROPERTY>
</VARIABLE>
<DEFINITION>
<FOR>MetastaticCancer</FOR>
	<GIVEN>SerumCalcium</GIVEN>
	<GIVEN>BrainTumor</GIVEN>
<TABLE>
0.8150337837837838 0.18496621621621623 
0.44427390791027155 0.5557260920897285 
0.19179229480737017 0.8082077051926299 
0.052348643006263046 0.9476513569937369 
</TABLE>
</DEFINITION>
<DEFINITION>
<FOR>SerumCalcium</FOR>
	<GIVEN>Coma</GIVEN>
	<GIVEN>BrainTumor</GIVEN>
<TABLE>
0.4963002114164905 0.5036997885835095 
0.8749676752004137 0.12503232479958623 
0.5041152263374485 0.49588477366255146 
0.08559509449135505 0.914404905508645 
</TABLE>
</DEFINITION>
<DEFINITION>
<FOR>BrainTumor</FOR>
<TABLE>
0.07916138924071729 0.9208386107592827 
</TABLE>
</DEFINITION>
<DEFINITION>
<FOR>Coma</FOR>
	<GIVEN>BrainTumor</GIVEN>
<TABLE>
0.7958754208754208 0.20412457912457913 
0.279897205733314 0.720102794266686 
</TABLE>
</DEFINITION>
<DEFINITION>
<FOR>SevereHeadaches</FOR>
	<GIVEN>BrainTumor</GIVEN>
<TABLE>
0.8169191919191919 0.1830808080808081 
0.6043506587519908 0.39564934124800927 
</TABLE>
</DEFINITION>
</NETWORK>
</BIF>
